digraph Tree {
node [shape=box, fontname="helvetica"] ;
edge [fontname="helvetica"] ;
0 [label="X[2] <= 7.95\ngini = 0.712\nsamples = 44\nvalue = [15, 4, 11, 14]"] ;
1 [label="X[1] <= 7.35\ngini = 0.625\nsamples = 28\nvalue = [15, 4, 7, 2]"] ;
0 -> 1 [labeldistance=2.5, labelangle=45, headlabel="True"] ;
2 [label="X[2] <= 5.85\ngini = 0.695\nsamples = 16\nvalue = [3, 4, 7, 2]"] ;
1 -> 2 ;
3 [label="gini = 0.0\nsamples = 4\nvalue = [0, 4, 0, 0]"] ;
2 -> 3 ;
4 [label="X[1] <= 6.55\ngini = 0.569\nsamples = 12\nvalue = [3, 0, 7, 2]"] ;
2 -> 4 ;
5 [label="gini = 0.0\nsamples = 2\nvalue = [0, 0, 0, 2]"] ;
4 -> 5 ;
6 [label="X[3] <= 0.85\ngini = 0.42\nsamples = 10\nvalue = [3, 0, 7, 0]"] ;
4 -> 6 ;
7 [label="X[3] <= 0.725\ngini = 0.219\nsamples = 8\nvalue = [1, 0, 7, 0]"] ;
6 -> 7 ;
8 [label="gini = 0.0\nsamples = 1\nvalue = [1, 0, 0, 0]"] ;
7 -> 8 ;
9 [label="gini = 0.0\nsamples = 7\nvalue = [0, 0, 7, 0]"] ;
7 -> 9 ;
10 [label="gini = 0.0\nsamples = 2\nvalue = [2, 0, 0, 0]"] ;
6 -> 10 ;
11 [label="gini = 0.0\nsamples = 12\nvalue = [12, 0, 0, 0]"] ;
1 -> 11 ;
12 [label="X[0] <= 202.0\ngini = 0.375\nsamples = 16\nvalue = [0, 0, 4, 12]"] ;
0 -> 12 [labeldistance=2.5, labelangle=-45, headlabel="False"] ;
13 [label="gini = 0.0\nsamples = 12\nvalue = [0, 0, 0, 12]"] ;
12 -> 13 ;
14 [label="gini = 0.0\nsamples = 4\nvalue = [0, 0, 4, 0]"] ;
12 -> 14 ;
}